let nw = {
    "intputs": [],
    "errors": [],
    "color": "#0F986A",
    "inputs": [
        0,
        0,
        0,
        0,
        0
    ],
    "structure": [
        [
            {
                "bias": 0,
                "value": 0.07950503258682859,
                "weights": [
                    0.11460355404059835,
                    0.14106319090277555,
                    -0.0948370784639949,
                    0.26609430663240735,
                    -0.2668636813439043
                ],
                "inputs": [
                    0,
                    0,
                    0,
                    0,
                    0
                ]
            },
            {
                "bias": 0,
                "value": -0.02819830023626295,
                "weights": [
                    0.26367940500136305,
                    0.22921628306495323,
                    0.10442925203949378,
                    0.2484573344988271,
                    -0.19507052927799887
                ],
                "inputs": [
                    0,
                    0,
                    0,
                    0,
                    0
                ]
            },
            {
                "bias": 0,
                "value": 0.1895783594777385,
                "weights": [
                    0.10528134202936766,
                    -0.09637804094791025,
                    -0.3142806486057916,
                    0.19764055876037342,
                    0.2920543582987571
                ],
                "inputs": [
                    0,
                    0,
                    0,
                    0,
                    0
                ]
            },
            {
                "bias": 0,
                "value": -0.06973445449328573,
                "weights": [
                    -0.284518118402392,
                    -0.11889278776187835,
                    0.0709664394838157,
                    0.007874668679524,
                    0.06492673477928892
                ],
                "inputs": [
                    0,
                    0,
                    0,
                    0,
                    0
                ]
            },
            {
                "bias": 0,
                "value": -0.15277560177716235,
                "weights": [
                    0.15887913660078562,
                    0.10968507170985936,
                    0.2762170651785628,
                    0.06337785159989766,
                    0.2676384965919965
                ],
                "inputs": [
                    0,
                    0,
                    0,
                    0,
                    0
                ]
            },
            {
                "bias": 0,
                "value": -0.23628048689730016,
                "weights": [
                    0.0159688627858548,
                    -0.05553741131731465,
                    0.3712195114113157,
                    -0.07567518180624028,
                    -0.26387971246432795
                ],
                "inputs": [
                    0,
                    0,
                    0,
                    0,
                    0
                ]
            },
            {
                "bias": 0,
                "value": 0.15530479977082368,
                "weights": [
                    0.21981223051487284,
                    -0.04150739811177331,
                    -0.24138179468071172,
                    -0.1852094257999477,
                    -0.1728515081272784
                ],
                "inputs": [
                    0,
                    0,
                    0,
                    0,
                    0
                ]
            },
            {
                "bias": 0,
                "value": -0.04197267276936589,
                "weights": [
                    0.33521638215444094,
                    -0.1356382537457521,
                    0.06739766262077858,
                    0.24296840225649063,
                    0.24574173372531793
                ],
                "inputs": [
                    0,
                    0,
                    0,
                    0,
                    0
                ]
            },
            {
                "bias": 0,
                "value": -0.23855773418210588,
                "weights": [
                    0.0995848599746887,
                    -0.04118490891472178,
                    0.38334665153988823,
                    0.061639718086149646,
                    0.3817153875702406
                ],
                "inputs": [
                    0,
                    0,
                    0,
                    0,
                    0
                ]
            },
            {
                "bias": 0,
                "value": -0.07296193229443843,
                "weights": [
                    -0.24564304366716316,
                    0.11664228255318582,
                    0.12039778353977515,
                    0.1915447672630421,
                    -0.009689499798207324
                ],
                "inputs": [
                    0,
                    0,
                    0,
                    0,
                    0
                ]
            }
        ],
        [
            {
                "bias": 0,
                "value": 0.06668836255781659,
                "weights": [
                    -0.25629495946552777,
                    0.37377829161905773,
                    -0.05958753216946208,
                    0.18887110741218302,
                    0.26675976034727444,
                    0.3534668933155044,
                    0.046894755121269636,
                    0.23063359104223158,
                    -0.16451210066423588,
                    0.06565121983491605
                ],
                "inputs": [
                    0,
                    0,
                    0,
                    0,
                    0
                ]
            },
            {
                "bias": 0,
                "value": 0.09418826398148958,
                "weights": [
                    0.07411433555599274,
                    0.05671293442783143,
                    -0.13617420283293122,
                    -0.2872256965751813,
                    -0.18739066858012998,
                    0.22862202916511096,
                    0.08349832654715571,
                    -0.008219604931952751,
                    -0.0490419529056595,
                    -0.07894673905377289
                ],
                "inputs": [
                    0,
                    0,
                    0,
                    0,
                    0
                ]
            },
            {
                "bias": 0,
                "value": 0.25488336419872926,
                "weights": [
                    0.08081056767122892,
                    -0.36892239438074187,
                    -0.4690085819333444,
                    0.29442326392391693,
                    -0.09318375213616248,
                    0.006314034980300506,
                    -0.0023677450013984387,
                    -0.1994431376590553,
                    -0.3386932702232891,
                    -0.08442175273288934
                ],
                "inputs": [
                    0,
                    0,
                    0,
                    0,
                    0
                ]
            },
            {
                "bias": 0,
                "value": -0.16741993996400306,
                "weights": [
                    -0.38346159610584835,
                    -0.2857979165138515,
                    0.19159306538569443,
                    0.23514963707903067,
                    0.13503275967551792,
                    0.00033419653677039455,
                    0.1380789568548356,
                    0.40051594312522815,
                    0.18044720506241155,
                    -0.31131258850873017
                ],
                "inputs": [
                    0,
                    0,
                    0,
                    0,
                    0
                ]
            },
            {
                "bias": 0,
                "value": -0.04955346715807006,
                "weights": [
                    -0.1644339643075482,
                    -0.1944790468755543,
                    0.033737827866711916,
                    0.10806848302432867,
                    -0.1350710938733193,
                    -0.20452035143896302,
                    0.14223176600359724,
                    0.1905613371085243,
                    -0.005890276899013003,
                    0.17767555771356802
                ],
                "inputs": [
                    0,
                    0,
                    0,
                    0,
                    0
                ]
            },
            {
                "bias": 0,
                "value": -0.060078245838203606,
                "weights": [
                    0.12834707108223423,
                    0.34247735133888185,
                    0.16601845772540982,
                    -0.16099913623351322,
                    -0.3950947518718678,
                    -0.08191950701423183,
                    0.019217765357267217,
                    -0.34268174259831774,
                    -0.1276955395264885,
                    -0.11650512880198231
                ],
                "inputs": [
                    0,
                    0,
                    0,
                    0,
                    0
                ]
            },
            {
                "bias": 0,
                "value": 0.030346880985398485,
                "weights": [
                    -0.3118158917546454,
                    0.026125384520596276,
                    -0.06633214212373502,
                    0.35436787618365184,
                    0.22474978017390027,
                    -0.38008699013670155,
                    0.15210079384293354,
                    0.323847194910058,
                    0.2135479766543467,
                    0.06600536965359254
                ],
                "inputs": [
                    0,
                    0,
                    0,
                    0,
                    0
                ]
            },
            {
                "bias": 0,
                "value": 0.15639595909255985,
                "weights": [
                    -0.27022772728439737,
                    -0.19162802854987723,
                    -0.30437686596942043,
                    -0.0960563920039462,
                    -0.20055141738727186,
                    0.28386209978925103,
                    -0.2821646310040478,
                    0.1464852748794927,
                    0.03969823823049829,
                    -0.21581911763471037
                ],
                "inputs": [
                    0,
                    0,
                    0,
                    0,
                    0
                ]
            }
        ],
        [
            {
                "bias": 0,
                "value": -0.01584131613624082,
                "weights": [
                    0.07584662278601197,
                    -0.13572787073826953,
                    0.0069505485377007676,
                    -0.14262235915825572,
                    -0.07796843689554268,
                    0.2217094467801548,
                    -0.12775659598997852,
                    -0.08703791651524956
                ],
                "inputs": [
                    0,
                    0,
                    0,
                    0,
                    0
                ]
            },
            {
                "bias": 0,
                "value": 0.023610473416619412,
                "weights": [
                    -0.10257003600474807,
                    0.30025653206871594,
                    0.0076374320986191905,
                    0.07172877657996617,
                    0.27091295140910554,
                    -0.12491617456322247,
                    0.12222688683906453,
                    -0.0030667323883413807
                ],
                "inputs": [
                    0,
                    0,
                    0,
                    0,
                    0
                ]
            },
            {
                "bias": 0,
                "value": -0.07938259387433251,
                "weights": [
                    0.19917840821597418,
                    -0.14820619781500513,
                    0.1156666514321329,
                    0.329110703277177,
                    0.12275552157973584,
                    0.09865466877786662,
                    0.07375139143102581,
                    0.3724292415657683
                ],
                "inputs": [
                    0,
                    0,
                    0,
                    0,
                    0
                ]
            },
            {
                "bias": 0,
                "value": 0.0074988186274080534,
                "weights": [
                    -0.3818653036839891,
                    -0.23826656204641464,
                    -0.08113816742006943,
                    0.28348186956139065,
                    0.06696666288994498,
                    0.35164382336577343,
                    -0.03469317412808472,
                    0.19958574787463174
                ],
                "inputs": [
                    0,
                    0,
                    0,
                    0,
                    0
                ]
            },
            {
                "bias": 0,
                "value": 0.02179456382449598,
                "weights": [
                    0.32934909358698783,
                    0.0034470089999337206,
                    -0.01104191266909867,
                    0.2179141069487326,
                    0.06551115452843635,
                    0.03410835181640016,
                    0.09326783041736993,
                    0.21590713846422654
                ],
                "inputs": [
                    0,
                    0,
                    0,
                    0,
                    0
                ]
            },
            {
                "bias": 0,
                "value": 0.014410603103237427,
                "weights": [
                    -0.04438151234180325,
                    0.16763110681396745,
                    0.003202910129135796,
                    -0.04644305005254159,
                    0.2661920621930257,
                    0.2009453323476749,
                    -0.011834503308580002,
                    0.25640939044415667
                ],
                "inputs": [
                    0,
                    0,
                    0,
                    0,
                    0
                ]
            }
        ]
    ],
    "outputs": [
        -0.01584131613624082,
        0.023610473416619412,
        -0.07938259387433251,
        0.0074988186274080534,
        0.02179456382449598,
        0.014410603103237427
    ],
    "scaffold": [
        {
            "bias": 0,
            "value": -0.01584131613624082,
            "weights": [
                0.07584662278601197,
                -0.13572787073826953,
                0.0069505485377007676,
                -0.14262235915825572,
                -0.07796843689554268,
                0.2217094467801548,
                -0.12775659598997852,
                -0.08703791651524956
            ],
            "inputs": [
                0,
                0,
                0,
                0,
                0
            ]
        },
        {
            "bias": 0,
            "value": 0.023610473416619412,
            "weights": [
                -0.10257003600474807,
                0.30025653206871594,
                0.0076374320986191905,
                0.07172877657996617,
                0.27091295140910554,
                -0.12491617456322247,
                0.12222688683906453,
                -0.0030667323883413807
            ],
            "inputs": [
                0,
                0,
                0,
                0,
                0
            ]
        },
        {
            "bias": 0,
            "value": -0.07938259387433251,
            "weights": [
                0.19917840821597418,
                -0.14820619781500513,
                0.1156666514321329,
                0.329110703277177,
                0.12275552157973584,
                0.09865466877786662,
                0.07375139143102581,
                0.3724292415657683
            ],
            "inputs": [
                0,
                0,
                0,
                0,
                0
            ]
        },
        {
            "bias": 0,
            "value": 0.0074988186274080534,
            "weights": [
                -0.3818653036839891,
                -0.23826656204641464,
                -0.08113816742006943,
                0.28348186956139065,
                0.06696666288994498,
                0.35164382336577343,
                -0.03469317412808472,
                0.19958574787463174
            ],
            "inputs": [
                0,
                0,
                0,
                0,
                0
            ]
        },
        {
            "bias": 0,
            "value": 0.02179456382449598,
            "weights": [
                0.32934909358698783,
                0.0034470089999337206,
                -0.01104191266909867,
                0.2179141069487326,
                0.06551115452843635,
                0.03410835181640016,
                0.09326783041736993,
                0.21590713846422654
            ],
            "inputs": [
                0,
                0,
                0,
                0,
                0
            ]
        },
        {
            "bias": 0,
            "value": 0.014410603103237427,
            "weights": [
                -0.04438151234180325,
                0.16763110681396745,
                0.003202910129135796,
                -0.04644305005254159,
                0.2661920621930257,
                0.2009453323476749,
                -0.011834503308580002,
                0.25640939044415667
            ],
            "inputs": [
                0,
                0,
                0,
                0,
                0
            ]
        }
    ],
    "dataoutputs": [
        {
            "value": -0.01584131613624082
        },
        {
            "value": 0.023610473416619412
        },
        {
            "value": -0.07938259387433251
        },
        {
            "value": 0.0074988186274080534
        },
        {
            "value": 0.02179456382449598
        },
        {
            "value": 0.014410603103237427
        }
    ]
}