let sw = {
    "intputs": [],
    "errors": [],
    "color": "#AFE7B9",
    "inputs": [
        0,
        0,
        0,
        0,
        0
    ],
    "structure": [
        [
            {
                "bias": 0,
                "value": 0.8715604868468607,
                "weights": [
                    -0.28680750568686975,
                    0.32996600294816947,
                    -0.0793227331550399,
                    -0.3677896665332785,
                    0.4697771902037595
                ],
                "inputs": [
                    -0.7162886002885714,
                    -0.7162886002885714,
                    -1.75,
                    0,
                    0
                ]
            },
            {
                "bias": 0,
                "value": 0.0780975318393824,
                "weights": [
                    -0.15519779833401692,
                    -0.24616171373691254,
                    -0.12254530558189125,
                    -0.3598663790534644,
                    0.11980930933759054
                ],
                "inputs": [
                    -0.7162886002885714,
                    -0.7162886002885714,
                    -1.75,
                    0,
                    0
                ]
            },
            {
                "bias": 0,
                "value": 1.0089359448101671,
                "weights": [
                    -0.2801325120391462,
                    -0.20142279069836738,
                    -0.40007324424733465,
                    0.1986976364090074,
                    0.45833425039057163
                ],
                "inputs": [
                    -0.7162886002885714,
                    -0.7162886002885714,
                    -1.75,
                    0,
                    0
                ]
            },
            {
                "bias": 0,
                "value": -0.623209268872995,
                "weights": [
                    -0.3986176391917994,
                    0.12251589668943969,
                    0.3544333894050578,
                    0.27309841949886665,
                    -0.09875389791426525
                ],
                "inputs": [
                    -0.7162886002885714,
                    -0.7162886002885714,
                    -1.75,
                    0,
                    0
                ]
            },
            {
                "bias": 0,
                "value": 0.826067057627464,
                "weights": [
                    -0.24653621269294376,
                    0.22741921261326778,
                    -0.12964268740580773,
                    -0.1777834224517567,
                    0.4071283842401661
                ],
                "inputs": [
                    -0.7162886002885714,
                    -0.7162886002885714,
                    -1.75,
                    0,
                    0
                ]
            },
            {
                "bias": 0,
                "value": 0.056860367402191386,
                "weights": [
                    0.37722508975272145,
                    0.047256289795913,
                    -0.0978118550659414,
                    -0.2219839451970813,
                    -0.16269454156808263
                ],
                "inputs": [
                    -0.7162886002885714,
                    -0.7162886002885714,
                    -1.75,
                    0,
                    0
                ]
            },
            {
                "bias": 0,
                "value": -0.7319047721064211,
                "weights": [
                    -0.1079973175635374,
                    0.1035741083682717,
                    0.4299555727009397,
                    0.41834658510027145,
                    -0.06764620631048546
                ],
                "inputs": [
                    -0.7162886002885714,
                    -0.7162886002885714,
                    -1.75,
                    0,
                    0
                ]
            },
            {
                "bias": 0,
                "value": -0.8090614923509069,
                "weights": [
                    -0.1804486990810728,
                    -0.2233161478356127,
                    0.09848685174173366,
                    0.2658151790809441,
                    -0.45178683800401753
                ],
                "inputs": [
                    -0.7162886002885714,
                    -0.7162886002885714,
                    -1.75,
                    0,
                    0
                ]
            },
            {
                "bias": 0,
                "value": -0.6460607516782433,
                "weights": [
                    0.032177729989867586,
                    0.40107302877453965,
                    0.3574598716363817,
                    0.4666927803045169,
                    -0.41301366931296823
                ],
                "inputs": [
                    -0.7162886002885714,
                    -0.7162886002885714,
                    -1.75,
                    0,
                    0
                ]
            },
            {
                "bias": 0,
                "value": 0.47848931761337626,
                "weights": [
                    0.38738941142535277,
                    -0.011292091079844352,
                    -0.0365042949595284,
                    -0.4640323241541401,
                    0.46915216291688333
                ],
                "inputs": [
                    -0.7162886002885714,
                    -0.7162886002885714,
                    -1.75,
                    0,
                    0
                ]
            }
        ],
        [
            {
                "bias": 0,
                "value": -0.052628304002195786,
                "weights": [
                    -0.41446611446947623,
                    0.01419648312592718,
                    -0.0694473999553813,
                    -0.04297141793387463,
                    -0.1881890277630048,
                    -0.2253521217938197,
                    0.059376018706137075,
                    -0.44518615944249795,
                    -0.33417001438527927,
                    -0.2548731440999543
                ],
                "inputs": [
                    -0.7162886002885714,
                    -0.7162886002885714,
                    -1.75,
                    0,
                    0
                ]
            },
            {
                "bias": 0,
                "value": 0.11521469420212682,
                "weights": [
                    0.3478648428551203,
                    0.06604224031137962,
                    0.1302609919045759,
                    0.3566143421901653,
                    0.26490065543182256,
                    0.42330396010657556,
                    0.04262991893600376,
                    0.2661715310960957,
                    0.336601090095886,
                    0.2183317718667157
                ],
                "inputs": [
                    -0.7162886002885714,
                    -0.7162886002885714,
                    -1.75,
                    0,
                    0
                ]
            },
            {
                "bias": 0,
                "value": 0.8438537611068206,
                "weights": [
                    -0.03720723478491128,
                    0.2623443616109973,
                    -0.24250962520603322,
                    -0.1709181675031564,
                    0.16997429858560986,
                    -0.04321651453377218,
                    0.29761601395935045,
                    -0.39673177772642965,
                    0.15444260176217495,
                    -0.3782037718105828
                ],
                "inputs": [
                    -0.7162886002885714,
                    -0.7162886002885714,
                    -1.75,
                    0,
                    0
                ]
            },
            {
                "bias": 0,
                "value": 1.0212953056178806,
                "weights": [
                    0.02944496043650413,
                    0.15607705499972124,
                    -0.3254919211583067,
                    0.11180700294358736,
                    0.2696839598141292,
                    0.47439869843244353,
                    -0.27678941830681825,
                    0.000790625995860994,
                    0.2538082009714024,
                    -0.3295812496752679
                ],
                "inputs": [
                    -0.7162886002885714,
                    -0.7162886002885714,
                    -1.75,
                    0,
                    0
                ]
            },
            {
                "bias": 0,
                "value": 0.4794089815189412,
                "weights": [
                    0.2815882466516805,
                    0.08212071081853689,
                    -0.2666623878777159,
                    -0.21102918024514827,
                    -0.0823521659783197,
                    -0.1721276688721309,
                    -0.007788968373334537,
                    -0.45770225488746163,
                    -0.14423856894682818,
                    -0.029026608290745104
                ],
                "inputs": [
                    -0.7162886002885714,
                    -0.7162886002885714,
                    -1.75,
                    0,
                    0
                ]
            },
            {
                "bias": 0,
                "value": 0.48814011155751247,
                "weights": [
                    0.3968566386518855,
                    -0.06715425387896694,
                    -0.2024935655915927,
                    -0.4534704436656418,
                    0.21354622277700502,
                    -0.10628978382534782,
                    0.3486234516005091,
                    0.10507883461013368,
                    0.366219117352957,
                    0.2851178123885616
                ],
                "inputs": [
                    -0.7162886002885714,
                    -0.7162886002885714,
                    -1.75,
                    0,
                    0
                ]
            },
            {
                "bias": 0,
                "value": -0.02348600639248044,
                "weights": [
                    0.30702727456165574,
                    -0.10399837452898963,
                    0.1683366320266424,
                    -0.2646426026617079,
                    0.416401657927844,
                    -0.3583568083103168,
                    0.192146232825114,
                    -0.002966890899174235,
                    -0.12455491066659419,
                    -0.08904725775100597
                ],
                "inputs": [
                    -0.7162886002885714,
                    -0.7162886002885714,
                    -1.75,
                    0,
                    0
                ]
            },
            {
                "bias": 0,
                "value": -0.12103487731789486,
                "weights": [
                    -0.30348679637304143,
                    0.49873776959413174,
                    0.4881592025550501,
                    -0.11624808543849618,
                    0.34660509531161177,
                    -0.4066480782872164,
                    -0.01895305187817765,
                    0.06813954224123497,
                    -0.20827566768413072,
                    0.4587479987862415
                ],
                "inputs": [
                    -0.7162886002885714,
                    -0.7162886002885714,
                    -1.75,
                    0,
                    0
                ]
            }
        ],
        [
            {
                "bias": 0,
                "value": -1.0785672267217252,
                "weights": [
                    -0.4019620820861427,
                    -0.20701462862772468,
                    0.4581740791063178,
                    -0.17799270634874498,
                    -0.01082294540624399,
                    -0.27749590887159475,
                    0.28497095048213916,
                    0.2857221151606853
                ],
                "inputs": [
                    -0.7162886002885714,
                    -0.7162886002885714,
                    -1.75,
                    0,
                    0
                ]
            },
            {
                "bias": 0,
                "value": -0.6148456831588492,
                "weights": [
                    0.014201584567251846,
                    -0.47283038094396956,
                    0.16460921590208533,
                    0.12251208797296526,
                    0.12567253547388435,
                    0.20775708457688657,
                    -0.46313677894733973,
                    0.18719411812325326
                ],
                "inputs": [
                    -0.7162886002885714,
                    -0.7162886002885714,
                    -1.75,
                    0,
                    0
                ]
            },
            {
                "bias": 0,
                "value": 0.6095629624639902,
                "weights": [
                    -0.022333120289798048,
                    0.43780663569738687,
                    0.13214316270497606,
                    -0.17662274696197633,
                    0.4770501894008128,
                    -0.17351663333271228,
                    -0.30628697941411076,
                    0.3194028342859658
                ],
                "inputs": [
                    -0.7162886002885714,
                    -0.7162886002885714,
                    -1.75,
                    0,
                    0
                ]
            },
            {
                "bias": 0,
                "value": -0.7060292395001555,
                "weights": [
                    -0.08895579304156787,
                    -0.37551048985022817,
                    0.3813705598630341,
                    0.44530622165472095,
                    0.3260395324529193,
                    -0.3700742697077892,
                    0.2941608392103022,
                    0.3802833624884485
                ],
                "inputs": [
                    -0.7162886002885714,
                    -0.7162886002885714,
                    -1.75,
                    0,
                    0
                ]
            },
            {
                "bias": 0,
                "value": -0.2867689085757946,
                "weights": [
                    0.16456362363340152,
                    -0.012847881468790456,
                    0.30109799938799564,
                    0.31194108653611163,
                    0.2614600360986259,
                    0.16277058637756592,
                    0.39900341456027044,
                    0.3944258066553654
                ],
                "inputs": [
                    -0.7162886002885714,
                    -0.7162886002885714,
                    -1.75,
                    0,
                    0
                ]
            },
            {
                "bias": 0,
                "value": -0.9370702149553737,
                "weights": [
                    0.0654975814005323,
                    -0.4418514439331931,
                    0.15825815012759506,
                    -0.1725515210622912,
                    -0.22379777426242453,
                    -0.44512556950663434,
                    -0.30758230769406475,
                    0.16629660841487517
                ],
                "inputs": [
                    -0.7162886002885714,
                    -0.7162886002885714,
                    -1.75,
                    0,
                    0
                ]
            }
        ]
    ],
    "outputs": [
        -1.0785672267217252,
        -0.6148456831588492,
        0.6095629624639902,
        -0.7060292395001555,
        -0.2867689085757946,
        -0.9370702149553737
    ],
    "scaffold": [
        {
            "bias": 0,
            "value": -1.0785672267217252,
            "weights": [
                -0.4019620820861427,
                -0.20701462862772468,
                0.4581740791063178,
                -0.17799270634874498,
                -0.01082294540624399,
                -0.27749590887159475,
                0.28497095048213916,
                0.2857221151606853
            ],
            "inputs": [
                -0.7162886002885714,
                -0.7162886002885714,
                -1.75,
                0,
                0
            ]
        },
        {
            "bias": 0,
            "value": -0.6148456831588492,
            "weights": [
                0.014201584567251846,
                -0.47283038094396956,
                0.16460921590208533,
                0.12251208797296526,
                0.12567253547388435,
                0.20775708457688657,
                -0.46313677894733973,
                0.18719411812325326
            ],
            "inputs": [
                -0.7162886002885714,
                -0.7162886002885714,
                -1.75,
                0,
                0
            ]
        },
        {
            "bias": 0,
            "value": 0.6095629624639902,
            "weights": [
                -0.022333120289798048,
                0.43780663569738687,
                0.13214316270497606,
                -0.17662274696197633,
                0.4770501894008128,
                -0.17351663333271228,
                -0.30628697941411076,
                0.3194028342859658
            ],
            "inputs": [
                -0.7162886002885714,
                -0.7162886002885714,
                -1.75,
                0,
                0
            ]
        },
        {
            "bias": 0,
            "value": -0.7060292395001555,
            "weights": [
                -0.08895579304156787,
                -0.37551048985022817,
                0.3813705598630341,
                0.44530622165472095,
                0.3260395324529193,
                -0.3700742697077892,
                0.2941608392103022,
                0.3802833624884485
            ],
            "inputs": [
                -0.7162886002885714,
                -0.7162886002885714,
                -1.75,
                0,
                0
            ]
        },
        {
            "bias": 0,
            "value": -0.2867689085757946,
            "weights": [
                0.16456362363340152,
                -0.012847881468790456,
                0.30109799938799564,
                0.31194108653611163,
                0.2614600360986259,
                0.16277058637756592,
                0.39900341456027044,
                0.3944258066553654
            ],
            "inputs": [
                -0.7162886002885714,
                -0.7162886002885714,
                -1.75,
                0,
                0
            ]
        },
        {
            "bias": 0,
            "value": -0.9370702149553737,
            "weights": [
                0.0654975814005323,
                -0.4418514439331931,
                0.15825815012759506,
                -0.1725515210622912,
                -0.22379777426242453,
                -0.44512556950663434,
                -0.30758230769406475,
                0.16629660841487517
            ],
            "inputs": [
                -0.7162886002885714,
                -0.7162886002885714,
                -1.75,
                0,
                0
            ]
        }
    ],
    "dataoutputs": [
        {
            "value": -1.0785672267217252
        },
        {
            "value": -0.6148456831588492
        },
        {
            "value": 0.6095629624639902
        },
        {
            "value": -0.7060292395001555
        },
        {
            "value": -0.2867689085757946
        },
        {
            "value": -0.9370702149553737
        }
    ]
}